svm_type c_svc
kernel_type polynomial
degree 4
gamma 0.00675676
coef0 0
nr_class 7
total_sv 197
rho -0.334738 -5.37898 -3.80051 -0.334133 -0.372357 -0.334527 -0.00345868 0.333959 0.000763906 0.330479 0.102807 0.965884 0.00421387 -2.2446 0.00379935 -0.333312 -1.46192 -0.333689 0.330043 -0.000311272 -0.330233
label 2 1 5 6 4 3 0
nr_sv 111 6 11 39 5 22 3
SV
0 0 0 0 2.214303220247458e-07 0 3:75 10:0.59595525 24:1.4656085 91:0.79674017 92:0.57349896 94:0.45484401 
0 0 0 0 6.940215681367104e-07 0 3:75 10:1.0618839 15:0.43794466 91:0.33801098 92:0.24330259 94:0.57889237 
0 0 0 0 5.19286503313452e-07 0 3:75 10:1.0618839 24:0.93265993 92:0.24330259 93:1.2590909 94:0.57889237 
0 0 0 0 4.205908648312145e-08 0 3:75 10:0.51343837 23:0.69861286 91:0.85802788 92:0.61761427 93:1.0653846 94:0.48983201 
1.138512366064609e-08 0 1.454458792837159 7.753709815158963e-09 0 1.086181665344621e-08 3:75 10:0.83433735 23:4.5409836 
1.046094219614435e-12 0 0 5.764266426035754e-13 2.927554848550184e-11 1.366734563467361e-12 3:75 10:1.0012048 15:0.96347826 26:110.8 
0 0 4 0 0 0 4:75 110:2.0518519 119:4.6166667 
0 0 4 0 0 0 4:75 110:2.0518519 119:4.6166667 
0 0 0.2669458415830256 0 0 0 3:75 10:0.66746988 15:1.9269565 24:2.0518519 
0 0.0001140503969247324 0 0 3.244363653959664e-05 0 4:75 6:25 7:25 110:3.4197531 
0 0 0 0 4.640188156536954e-09 7.603267099412842e-11 3:75 10:0.66746988 15:0.48173913 30:11.08 91:0.37181208 92:0.26763285 133:3.9571429 
0 0 0 0 1.063685786477853e-07 0 3:75 10:0.66746988 15:0.48173913 24:1.0259259 91:0.37181208 92:0.26763285 93:1.385 94:0.63678161 
0 6.938911445286404e-07 3.999996867441466 0 5.118866095799221e-07 0 4:150 6:50 7:25 95:5.0363636 110:2.7358025 119:1.1541667 
1.628133758150643e-09 0 0 1.373391864578834e-09 6.231794905673537e-08 1.548177895253804e-09 3:75 10:0.29447201 15:0.28337596 24:0.60348584 91:0.43742598 92:0.31486218 93:1.6294118 94:0.74915483 95:5.9251337 133:2.3277311 
0 0 0 0 7.322655497473306e-09 0 3:75 10:0.83433735 15:0.96347826 42:9.2333333 91:0.37181208 92:0.26763285 
1.197080506373189e-10 0 0 0 1.62782148189728e-08 0 3:75 10:0.9535284 23:1.2974239 24:0.73280423 28:4.1654135 30:7.9142857 
0 0 4 0 0 0 4:150 6:50 7:25 95:3.8741259 110:2.8936372 119:0.88782051 
5.806722549525678e-10 0 0 1.593275336002151e-10 2.620361515203038e-08 5.12856742532497e-10 3:75 10:0.62575301 23:1.1352459 24:1.9236111 42:5.7708333 93:0.865625 94:0.39798851 96:6.925 133:1.2366071 
0 4 0 0 0 0 4:75 110:2.2798354 119:3.8472222 
0 0 0 0 2.017007098960342e-07 0 3:75 10:0.5562249 15:0.80289855 91:0.6196868 92:0.44605475 133:3.297619 
1.635525510118624e-09 0 3.922185686506669e-06 1.802568639150345e-09 0 1.623030456705237e-09 4:75 37:21.72549 92:0.8921095 
0 0 0.1184072570702751 0 0 0 3:75 10:0.83433735 23:2.2704918 24:2.5648148 
2.286932214196026e-07 0 0.0005742977531605389 2.320247962810403e-07 0 2.31929732304815e-07 4:75 91:1.2393736 92:0.8921095 110:1.1399177 
0 0 0 0 3.168005214916238e-08 0 3:75 10:1.1124498 15:0.80289855 23:1.5136612 
0 0 0 0 4.83295490279631e-07 0 3:75 10:0.5562249 15:1.2043478 23:0.7568306 91:0.6196868 92:0.44605475 
0 0 0.00283596838393325 0 3.261045338375683e-08 0 3:75 10:0.4767642 15:1.3763975 24:2.9312169 92:0.38233264 
1.328961799115845e-11 0 0 0 3.386310604796427e-10 0 3:75 10:0.83433735 23:2.2704918 33:69.25 
0 0 0 1.458784862477988e-12 0 1.322108535061128e-12 3:75 10:0.83433735 33:138.5 
6.806764008786764e-08 0 0 3.047411696772037e-08 0 3.275533935002697e-08 3:75 91:1.8590604 92:1.3381643 
0 0 0 0 2.114731844585601e-08 0 3:75 10:0.3708166 91:0.82624907 92:0.59473967 94:1.4150702 133:2.1984127 
0 0 4 0 0 0 4:75 110:2.0518519 119:4.6166667 
0 0 4 0 0 0 4:75 110:2.0518519 119:4.6166667 
0 0 0 0 3.413352404960228e-08 0 3:75 10:0.7151463 15:0.68819876 91:0.53116012 92:0.38233264 133:2.8265306 
0 0 4 0 0 0 4:75 110:2.0518519 119:4.6166667 
0 0 0 0 1.528683972217697e-06 0 3:75 10:1.4302926 92:0.38233264 
0 0 0 0 4.912957822297468e-07 0 3:75 10:0.83433735 15:1.2043478 91:0.4647651 92:0.33454106 
0 0 0 0 1.930103810721325e-07 0 3:75 10:1.0429217 91:0.4647651 92:0.33454106 94:0.79597701 
0 0 0 0 5.550218093285794e-07 0 3:75 10:1.0012048 15:1.9269565 
0 0 2.528821975305995 0 0 7.988564687549913e-10 3:75 10:1.1124498 23:3.0273224 
0 0 0 2.066651994531333e-09 0 9.59311884916386e-10 3:75 91:1.2393736 92:0.8921095 94:2.1226054 
0 0 0 6.449166729974886e-11 0 0 3:75 10:0.83433735 28:14.578947 
0 0 0.1657240043864079 0 0 0 4:75 92:0.8921095 110:2.2798354 
2.858634025578117e-08 0 3.080204109713415 2.572226620470745e-08 0 2.587339685944184e-08 4:75 92:0.8921095 110:2.2798354 
0 0 0 0 1.168015962967095e-09 0 3:75 10:0.33373494 91:0.74362416 92:0.5352657 94:1.2735632 133:3.9571429 
4.018208789112286e-11 0 0 0 0 0 3:75 10:1.1124498 42:30.777778 
4.89130547917767e-09 0 0.05962801491281437 5.213588560813327e-09 0 4.546658106156066e-09 3:75 10:1.0012048 24:4.1037037 
0 0 0 0 3.999839854949485 0 4:75 110:1.8998628 119:5.1296296 
1.16291749459515e-09 0 0 0 1.269827960970884e-07 0 3:75 10:1.251506 24:2.5648148 
0 0 0 0 2.669343356400061e-09 0 3:75 10:0.7151463 24:1.4656085 93:1.9785714 94:0.90968801 133:2.8265306 
1.725389268731546e-12 0 0 4.733945821841847e-12 0 1.794648610823767e-12 4:75 91:0.74362416 92:0.5352657 110:1.3679012 124:110.8 
5.8915796390453e-08 0 0 5.850351475127672e-08 0 5.85327157208645e-08 4:75 91:1.0623202 92:0.76466529 110:0.97707231 119:1.6488095 
0 0 0 0 9.440853236546903e-07 0 3:75 10:1.251506 92:0.66908213 
1.30312011931775e-11 0 0 1.226171039879646e-10 0 6.19618808611958e-11 3:75 10:0.83433735 30:18.466667 42:30.777778 
2.134887634115438e-11 0 0 2.722833295446746e-11 7.075918439864709e-10 2.164484836056455e-11 3:75 10:1.1124498 29:61.555556 
3.176972298771756e-12 0 0 3.805565047315021e-12 2.963086424140783e-11 6.86118285079357e-13 3:75 10:0.33373494 29:36.933333 91:0.74362416 92:0.5352657 135:110.8 
2.090111132835327e-13 0 0 1.453432006527271e-12 1.033447742258585e-11 1.097978228272965e-12 3:75 10:0.41716867 34:138.5 91:0.9295302 92:0.66908213 
6.986780700397898e-11 0 0 2.388132186704767e-11 0 5.654860330215476e-11 3:75 10:1.1124498 30:36.933333 
0 0 1.23055185091206 0 0.0001630478058160441 0 4:75 92:0.24330259 110:1.5544332 119:5.2462121 
2.197543819441177e-08 0 0 1.200857613696983e-09 0 1.214768891159976e-09 3:75 10:0.27811245 15:4.0144928 
2.76429131501433e-08 0 0 2.61898291072462e-08 5.487705464789423e-07 2.601750914226374e-08 3:75 10:1.1124498 94:2.1226054 
0 0 3.571641305756585 0 0 0 3:75 10:0.83433735 15:1.2043478 24:2.5648148 
0 0 3.997262696089501 0 0 0 3:75 10:0.83433735 15:1.2043478 24:2.5648148 
0 0 0 0 5.810454319138824e-09 0 3:75 10:1.0429217 24:2.5648148 28:3.6447368 
0 0 0 0 1.495637740342052e-07 0 3:75 10:1.0012048 15:0.48173913 28:2.9157895 91:0.37181208 92:0.26763285 
0 0 0 0 1.164488569227843e-08 0 3:75 10:0.7151463 91:0.53116012 92:0.38233264 93:1.9785714 94:0.90968801 
0 0 0 0 4.835053769733576e-07 0 3:75 10:1.0618839 15:0.43794466 23:0.82563338 91:0.33801098 92:0.24330259 
0 0 0 0 4.584412866787694e-07 0 3:75 10:1.0012048 15:0.32115942 23:1.210929 92:0.1784219 93:0.92333333 94:0.42452107 
0 0 0 0 3.549083016907859e-09 0 3:75 10:1.4461847 15:0.64231884 
0 0 4 0 0 0 4:75 110:2.0518519 119:4.6166667 
0 0 0 0 1.782423041925584e-07 0 3:75 10:0.83433735 15:0.80289855 91:0.6196868 92:0.44605475 
0 0 0 0 4.149085056270351e-08 0 3:75 10:0.9101862 23:1.6512668 24:0.93265993 93:1.2590909 94:0.57889237 
0 0 0 0 1.102187229826906e-07 0 3:75 10:0.83433735 15:0.96347826 24:2.0518519 92:0.26763285 
1.229469358964276e-10 0 0 2.847832947873031e-10 5.407035152219625e-09 1.290644373406169e-10 3:75 10:0.41716867 11:23.083333 91:0.9295302 92:0.66908213 
0 0 0 0 1.270873483825798e-08 0 3:75 10:1.1124498 15:1.6057971 
0 0.4270875349558891 4 0 0 0 4:75 110:2.0518519 119:4.6166667 
0 0 0 0 1.906369427176243e-07 0 3:75 10:1.1124498 15:0.80289855 94:1.0613027 
2.498078893787154e-09 0 0 2.934430131995418e-09 0 2.449903148136973e-09 3:75 10:1.0012048 133:7.9142857 
0 0 0 0 9.71409593554243e-09 0 3:75 10:1.1124498 91:0.6196868 92:0.44605475 
0 0 0 0 0 5.214875371782256e-10 3:75 10:0.20858434 24:3.8472222 91:0.4647651 92:0.33454106 94:0.79597701 133:2.4732143 
0 0 0 0 2.217447981225406e-08 0 3:75 10:0.83433735 91:0.6196868 92:0.44605475 94:1.0613027 
0 0 0 6.501886144516655e-09 3.010649233005179e-08 0 3:75 10:1.251506 23:2.2704918 
0 0 0 0 1.407595680733894e-08 0 3:75 10:1.1680723 15:0.96347826 23:0.90819672 
0 0 0 0 7.448676008025446e-06 0 3:75 10:1.4302926 91:0.26558006 92:0.19116632 
8.204938758204435e-11 0 0 5.835671445047085e-10 5.187773205774561e-08 3.919640209144154e-10 3:75 10:1.251506 37:8.1470588 
6.105669336062948e-10 0 0 0 0 0 3:75 10:0.2383821 93:5.9357143 94:2.729064 
1.203521660947826e-10 0 0 4.063644103159079e-11 3.823831159904591e-09 1.166144387990241e-10 3:75 10:1.0012048 11:18.466667 32:27.7 
0 0 4 0 0 0 4:75 110:3.4197531 
0 0 4 0 0 0 4:75 110:3.4197531 
1.744309951972931e-10 0 0 2.238803539598281e-10 0 1.714072022143525e-10 4:75 91:0.9295302 92:0.66908213 110:0.85493827 120:34.625 
0 0 0 0 2.74675524390999e-07 0 3:75 10:1.1124498 92:0.8921095 
0 0 0 0 1.392973582142797e-06 0 3:75 10:0.83433735 92:1.3381643 
3.183783442716255e-08 0 0 3.301795366910516e-08 0 3.260409493140341e-08 3:75 92:2.6763285 
0 0.08532262441243615 4 0 0 0 4:75 110:3.4197531 
1.944213011813265e-10 0 0 2.895173646812716e-10 8.223212823163527e-09 2.022267029534521e-10 3:75 10:1.1124498 21:26.380952 
5.133146810585563e-12 0 0 6.432835845532809e-12 0 4.619733325712932e-12 4:75 110:2.2798354 117:92.333333 
8.497002019741228e-10 0 0 7.424540771600255e-10 0 6.618949476649511e-10 3:75 10:0.83433735 37:16.294118 
0 0 0 0 1.700556556909634e-05 0 3:75 10:1.6686747 
1.307941870594498e-07 0 0 1.32348099649321e-07 3.999988188509794 1.354821688342579e-07 3:75 10:1.6686747 
0 0 0 5.124422161427416e-08 0 5.111672138518101e-08 3:75 15:1.6057971 91:1.2393736 92:0.8921095 
0 0.002341541630869587 0 0 0 0 4:75 91:0.4647651 92:0.33454106 110:1.7098765 119:2.8854167 
0 0 0 0 4.276611172620466e-08 2.048214777659275e-10 3:75 10:0.11919105 28:4.1654135 37:4.6554622 91:0.79674017 92:0.57349896 94:1.364532 
0 0 0 0 3.668219328374827e-07 0 3:75 10:1.1124498 15:0.5352657 92:0.29736983 94:0.70753512 
1.488397804935745e-09 0 0 0 0 7.52123291889138e-10 3:75 10:1.0429217 28:10.934211 
0 0 0 1.052130004197195e-09 0 5.163588792690148e-10 3:75 10:0.5562249 23:1.5136612 28:14.578947 
0 0 0 0 1.593180677506168e-07 0 3:75 10:0.4767642 15:0.68819876 24:1.4656085 91:0.53116012 92:0.38233264 94:0.90968801 
0 0 0 0 6.052838805845728e-08 0 3:75 10:0.83433735 23:1.9461358 91:0.53116012 92:0.38233264 
0 0 0 0 5.985397141362805e-09 0 3:75 10:0.27811245 91:0.41312453 92:0.44605475 93:1.5388889 94:1.0613027 95:5.5959596 133:3.297619 
0 0 0 0 1.88382073960765e-07 0 3:75 10:0.6067908 15:0.87588933 23:2.4769001 91:0.33801098 92:0.24330259 
0 0 0 0 4.239012130089224e-08 0 3:75 10:0.66746988 15:0.96347826 23:1.8163934 24:1.0259259 92:0.26763285 
0 0 0 0 2.248364036854799e-06 0 3:75 10:1.0012048 91:0.74362416 92:0.5352657 
1.225241926583689e-08 0 0 1.49942845305432e-08 0 1.396768230034837e-08 3:75 10:0.5562249 15:0.80289855 24:1.7098765 93:2.3083333 94:1.0613027 
-6.251835953789501e-07 4.66680065140318e-07 6.24689014911836e-07 4.684359784150362e-07 6.229279921714239e-07 0.0001639223537702611 1:75 92:2.6763285 
-3.561559820640018e-09 2.683826114067003e-09 3.592639007812329e-09 2.750509939566525e-09 3.645373345953271e-09 5.974455668720927e-07 1:75 10:0.5562249 21:26.380952 92:0.8921095 
-1.899339436673807e-09 1.383267498832162e-09 1.762364029229858e-09 1.529982551102142e-09 1.776185965531269e-09 0 1:75 8:23.083333 22:14.205128 94:2.1226054 
-1.522261480534706e-09 1.14804124506496e-09 1.549160421394426e-09 1.140465401081669e-09 1.539664222868443e-09 5.378601722610915e-07 1:75 5:25 91:0.9295302 92:2.0072464 
-4.841803148387869e-13 3.732202776240803e-13 5.123179521609947e-13 4.081713935815044e-13 4.931074888127113e-13 0 1:75 8:23.083333 13:184.66667 
-4.311890986260049e-09 3.279892570940963e-09 4.475796270944333e-09 3.286764146618843e-09 4.52044781506653e-09 7.160485377383847e-06 1:75 8:13.85 22:17.046154 91:0.74362416 92:0.5352657 
-0.0001218811873104759 -2.992629698915989e-09 4 3.023597927981731e-09 0 3.081182308178946e-09 4:75 6:25 7:25 110:2.5648148 131:3.1477273 
-0.5147016442498175 -0 4 0 0 0 4:75 110:2.2798354 119:3.8472222 
-1.443226388156985e-07 -1.820626394618465e-10 0 2.585321098522453e-10 0 2.373385219985155e-10 4:75 46:9.6347826 61:22.16 65:18.466667 110:0.68395062 134:27.7 
-2.995386969448134e-06 -4.572437004497468e-09 7.543320762084573e-07 4.666403190846034e-09 0 4.79764867225457e-09 4:75 35:19.785714 46:6.0217391 110:1.7098765 
-4.263559165377089e-06 -1.17857021000199e-08 2.834262858675131e-06 1.18641105039842e-08 0 1.192640396888133e-08 4:75 49:20.518519 110:2.2798354 
-3.451316714903744e-05 -8.110747604886085e-08 1.977666586576718e-05 8.093135413656544e-08 0 8.076443881577365e-08 4:75 46:8.0289855 110:2.2798354 
-4 -3.744359239000478e-07 4 3.745760882151737e-07 0.000748795774821891 3.744210986158275e-07 4:75 110:2.2798354 119:3.8472222 
-4.069051361407317e-07 -3.584963947627477e-11 0 1.357735266552235e-10 0 0 4:75 46:4.8173913 49:12.311111 86:27.7 110:1.3679012 
-1.533081789451616e-08 -0 0 0 0 0 4:375 38:3.1657143 46:9.2906832 49:10.552381 53:7.9142857 61:1.5828571 65:2.6380952 86:3.9571429 110:1.0747795 134:3.9571429 
-1.469344832153115e-07 -6.338475822054367e-11 0 4.98711689135756e-11 0 6.9826278956746e-11 4:75 38:15.828571 46:10.322981 61:15.828571 65:52.761905 
-4.342437792642736e-07 -0 0 0 0 0 4:75 46:6.8819876 49:8.7936508 61:31.657143 110:0.97707231 
-4 -0 -0 0 0 0 4:150 6:50 7:25 95:5.0363636 110:2.7358025 119:1.1541667 
-3.999993890663944 -0 -0 0 0 0 4:150 6:50 7:25 95:3.8741259 110:2.8936372 119:0.88782051 
-0 -0 -0 0 0.001900317610191931 0 4:75 6:25 110:2.8497942 119:1.9236111 
-4 -0 -3.336041039884434e-07 0 0 0 4:75 110:2.2798354 119:3.8472222 
-1.724447675456215e-11 -0 -2.344247662708272e-13 1.663443178531393e-14 0 1.662408300511178e-14 4:75 89:277 110:1.7098765 
-0 -0 -7.200357002097254e-08 0 0 0 4:75 6:25 7:25 95:4.5785124 110:2.1762065 131:3.4338843 
-2.958762794191385e-06 -0 -0 0 0 0 4:150 6:25 95:3.5974026 110:2.4426808 111:2.3277311 119:1.6488095 
-2.163413360114004e-06 -0 -2.748254121623979e-09 0 1.352709470871627e-06 0 4:75 6:25 96:22.16 110:2.0518519 119:2.3083333 
-0 -3.822319857637777e-09 -0 3.826439643080857e-09 0 3.766545987398796e-09 4:75 110:1.1399177 111:10.862745 119:3.8472222 
-0 -0 -1.419305655361305e-11 1.638199591677309e-13 0 1.18213754575241e-12 4:75 110:1.7098765 111:8.1470588 121:138.5 
-2.006125269665506e-05 -0 -0 0 0 0 4:75 6:25 7:25 110:3.1088664 119:1.0492424 
-0 -0 -8.230859645981562e-10 0 0 0 4:75 6:25 7:25 110:2.659808 111:3.620915 131:1.3989899 
-1.234843642257492 -0 -0 0 0 0 4:75 110:3.4197531 
-4 -1.178376012071239e-07 -6.041695684404866e-09 1.179942540116622e-07 9.240106748300344e-05 1.178894662318611e-07 3:75 10:1.0012048 23:3.6327869 
-4 -0 -4 0 0 0 4:75 110:2.2798354 119:3.8472222 
-0 -0 -8.317199122656544e-12 0 0 0 4:450 6:100 110:3.4197531 
-0 -0 -2.919214756111916e-08 0 0 0 4:75 6:25 7:25 110:2.7358025 131:2.5181818 
-1.862817368637467e-11 -1.069432020058354e-14 -2.291324614454637e-13 1.011101676570554e-14 0 1.038668353379561e-14 4:75 92:0.33454106 110:0.42746914 144:207.75 148:207.75 
-2.389357145760814 -2.584875229192013e-07 -8.595918134214589e-06 2.596130639067839e-07 0 2.591574475247297e-07 4:75 92:1.3381643 110:1.7098765 
-4 -0 -0 0 0 0 4:75 110:3.4197531 
-4 -0 -0 0 0 0 4:75 110:3.4197531 
-0.0003989502448602848 -2.399766250790632e-08 -3.608690434768403e-07 2.290411740329362e-08 0 2.294218106729348e-08 4:75 110:1.7098765 119:2.8854167 131:3.1477273 
-4 -0 -0 0 0 0 3:75 10:0.83433735 15:1.2043478 24:2.5648148 
-4 -2.000440596459143e-07 -1.022465547608768e-08 2.001649029427731e-07 0.0001482841863730652 2.001940977148571e-07 3:75 10:0.83433735 15:1.2043478 24:2.5648148 
-0.6767312712678147 -0 -0 0 0 0 4:75 110:1.8414055 119:5.3269231 
-4 -0 -0 0 0 0 4:75 110:1.8414055 119:5.3269231 
-4 -0 -0 0 0 0 4:75 110:1.8414055 119:5.3269231 
-4 -0 -0 0 3.261173392245018 0 4:75 110:1.8653199 119:5.2462121 
-4 -0 -0 0 0 0 4:75 110:2.1373457 119:4.328125 
-1.09026099154655 -0 -0 0 0.7388278712449071 0 4:75 110:2.0518519 119:4.6166667 
-0 -0 -1.42417940010272e-07 0 0 0 4:75 110:2.0518519 111:6.5176471 119:2.3083333 
-5.559945716937344e-05 -0 -0 0 0 0 4:75 110:1.7098765 111:10.862745 119:1.9236111 
-0 -0 -0 0 1.739362223871139e-05 0 4:75 6:25 110:2.0518519 111:6.5176471 119:2.3083333 
-3.085310371967694 -0 -1.254815559282204e-05 0 0 0 4:75 110:3.4197531 
-0 -0 -3.999999893998441 0 0 0 4:75 6:25 7:25 110:2.5648148 131:3.1477273 
-4 -0 -4 0 0 0 4:75 110:2.2798354 119:3.8472222 
-3.548692584784149e-06 -1.168785816968459e-10 -0 1.326381478578898e-10 0 1.341037216096631e-10 4:75 6:25 95:16.787879 110:2.2798354 
-0 -0 -3.12744814790841e-07 0 0 0 4:75 110:2.2798354 131:4.1969697 
-7.630900782221456e-05 -3.17634315453685e-08 -1.056496347217977e-06 3.201212536688244e-08 0 3.221211954449532e-08 4:75 93:3.4625 94:1.591954 110:1.7098765 
-6.35594750706571e-07 -4.761448207299835e-07 -4.744925754933622e-07 -6.352711766203301e-07 6.335316461031368e-07 4.760450583351052e-07 2:75 91:1.8590604 92:1.3381643 
-1.249814763819778e-09 -9.243066389159356e-10 -9.3001793153903e-10 -1.177244719341693e-09 9.825857420643716e-10 5.400642193635854e-10 2:75 9:30.777778 10:0.5562249 21:26.380952 
-2.260816761582181e-11 -1.797795648326447e-11 -1.672055172053921e-11 -2.027410662437604e-11 2.606417995448422e-11 1.401433812305438e-11 2:75 9:30.777778 110:1.1399177 117:92.333333 
-0 -0 -0 -0 7.449132884212102e-11 3.967991973450929e-10 2:75 9:30.777778 21:26.380952 37:10.862745 
-1.319695319276476e-10 -5.700329941644164e-11 -6.641680335044745e-11 -1.790365414455655e-10 3.059812020515377e-10 1.750811534040205e-10 2:75 9:46.166667 22:21.307692 
-4 -3.159121407054912e-07 -1.531817250308653e-06 -0.0002401746433652822 -3.150873779070789e-07 3.159496624959112e-07 3:75 10:1.6686747 
-4.161443633112453e-09 -0 -0 -0 -0 0 3:150 10:0.7416332 39:4.1037037 45:5.4313725 87:30.777778 
-2.786410709691177e-06 -0 -0 -0 -0 0 3:75 10:0.83433735 36:17.3125 45:4.0735294 
-2.997369046129674e-06 -0 -0 -0 -0 0 3:75 10:0.83433735 45:4.0735294 50:17.3125 
-1.420519472903869e-08 -0 -0 -0 -0 0 3:75 10:1.1124498 50:23.083333 
-7.096352010811944e-06 -4.319361993354963e-09 -3.169596574140464e-06 -0.001919366926780183 -3.846367321033678e-09 4.480257010942466e-09 4:75 6:25 110:2.5648148 119:2.8854167 
-0 -8.286419257419864e-10 -3.62723426445796e-09 -2.773929982096087e-07 -8.819768721643106e-10 8.926690863006317e-10 3:75 10:0.41716867 45:6.1102941 50:17.3125 66:11.541667 
-3.774451768002592e-07 -0 -0 -0 -0 0 3:150 10:0.9535284 45:4.6554622 66:13.190476 
-1.826050313333273e-06 -0 -0 -0 -0 6.692460163171202e-15 3:75 5:25 10:1.6686747 
-1.120928605780471e-05 -0 -0 -0 -3.691272569025384e-09 0 3:75 10:0.83433735 39:9.2333333 45:4.0735294 
-0 -3.478773080540838e-11 -1.958992852991202e-10 -1.44299106590578e-08 -0 3.85808754989868e-11 3:75 10:0.4767642 45:4.6554622 50:19.785714 87:39.571429 
-4 -3.098646975405103e-07 -0.0007440742399442825 -4 -3.105932823693623e-07 3.098159731685969e-07 4:75 110:1.8998628 119:5.1296296 
-3.55747182256561e-05 -0 -0 -0 -0 0 4:75 6:25 7:25 110:2.0518519 119:4.6166667 
-0 -5.165521123644353e-10 -2.167317212372133e-09 -1.786567364050258e-07 -0 5.936114733570179e-10 3:75 39:10.552381 45:9.3109244 54:13.190476 
-2.435399130624248e-08 -0 -0 -0 -0 0 3:75 10:0.83433735 62:92.333333 
-0 -1.204894586677338e-10 -6.960357912486503e-10 -4.577872587353225e-08 -2.854682332049171e-10 1.294719162977828e-10 3:75 36:11.541667 45:8.1470588 54:15.388889 62:30.777778 
-1.064554775619019e-09 -0 -2.803558293665829e-12 -1.894193665352694e-10 -0 5.319543518208677e-13 3:75 45:8.1470588 54:23.083333 88:138.5 
-0 -0 -1.106198874770918e-10 -1.350397280059406e-09 -0 0 3:75 45:9.7764706 50:27.7 
-6.830144088620547e-09 -0 -7.394296249412282e-12 -4.990792543270698e-10 -0 1.256092575309828e-12 3:75 10:0.66746988 45:3.2588235 54:18.466667 137:110.8 
-5.350311858841889e-08 -0 -0 -0 -0 0 3:150 10:0.9535284 36:9.8928571 45:4.6554622 
-0 -2.225237456037624e-09 -1.048881050849645e-08 -7.433662808872054e-07 -0 2.110433353963476e-09 3:75 39:12.311111 45:10.862745 
-0 -5.882477053585603e-10 -2.824938355348729e-09 -2.094519840488271e-07 -5.350232841798611e-10 6.141977342901483e-10 3:75 36:23.083333 45:10.862745 
-0 -8.525174418023227e-10 -0 -0 -0 -0 1:75 22:10.653846 29:46.166667 91:0.9295302 92:0.66908213 
-2.384973181000163e-08 -1.65840504311171e-05 -1.788348192980331e-08 -2.293590996567656e-08 -1.815872699841714e-08 -2.421391025063973e-08 1:75 10:0.41716867 22:10.653846 91:0.9295302 92:0.66908213 
-6.128400475267187e-07 -0.0001556332419382193 -4.574144552520679e-07 -6.133612609748808e-07 -4.590122902449237e-07 -6.104127416039063e-07 1:75 91:1.3942953 92:1.0036232 93:1.73125 94:0.79597701 
