svm_type c_svc
kernel_type rbf
gamma 0.01
nr_class 8
total_sv 305
rho 0.402094 0.376836 -0.391705 0.0341766 -0.553688 0.287989 0.0913019 0.00692152 -0.581504 -0.813999 -0.760122 -0.128622 -0.274074 -0.596851 -0.328691 -0.769872 -0.129493 -0.295826 0.279893 -0.320111 0.521719 0.365717 -0.550666 0.30837 0.0956112 0.721357 0.613952 -0.192786
label 1 2 5 0 7 4 3 6
nr_sv 28 102 46 19 54 4 32 20
SV
0.7902632569321814 0.7760295335195114 7.964516985743354 0.5829019240540486 0.2515566570355554 0.7259527272427215 0.6150926631929849 1:75 10:4.4429825 72:8.5365169 
0 0 15.54820201847176 0 0 0 0 1:75 10:7.1087719 22:3.2677419 28:0.6620915 72:2.2764045 
0.2111834046060837 0.2073807399781761 5.104302473912165 0.1557654281925851 0.06722933713273595 0.1939921968889076 0.1643791594291094 1:75 8:1.4492132 
0.8284169641100138 0.8134978992964034 0.3593855439315624 0.611031306538931 0.2637000523849756 0.7610002571739298 0.6447827335725497 1:75 15:30 
0.68316833622624 0.670860324865212 0.2964999585520879 0.503894989840729 0.2174676294665669 0.6275633287608509 0.5317410051014543 1:75 10:8.8859649 15:30 
1.385317145919853 1.360362589221178 0.600231628883782 1.021801519686962 0.4409735229631294 1.272581116762543 1.078245021438902 1:75 21:21.104167 38:7.3405797 40:9.3796296 48:18.759259 
0.9844458657496079 0.9667118649280887 0.5895694168096161 0.7261199831652481 0.3133693054484924 0.9043327973634671 0.766235263653574 1:75 21:14.069444 40:9.3796296 70:5.7556818 
1.049876905743174 1.030968734121614 0.4678963632600893 0.7743834989238761 0.3341933057698923 0.9644397947339935 0.8171656090577658 1:75 21:30 
1.266890358745475 1.244071115575917 1.738723949346394 0.9344514519538186 0.4032772281902927 1.163789950727565 0.9860675641078512 1:75 22:8.1693548 40:28.138889 
0 0 4.736530355295219 0 0 0 0 1:75 22:10.892473 29:2.3613054 
0.994770507721247 0.9768448044965033 5.859146017420064 0.7337400971268916 0.3166540844298237 0.9138105783322087 0.7742690285408644 1:75 22:8.1693548 29:1.770979 40:14.069444 
0.5031822361524989 0.4941112511427033 0.2182862356372014 0.3711545041905397 0.160169549434373 0.4622368411650639 0.3916422060473519 1:75 10:5.9239766 15:30 22:5.4462366 
0.4107140687969687 0.4033050319569242 0.2744993001838865 0.3029471014787641 0.1307466402870311 0.3772898513020521 0.3196792451239925 1:75 10:4.4429825 21:10.552083 22:4.0846774 28:0.82761438 
0.09534040537863939 0.09362643311943963 4.483232721154643 0.07032073501202819 0.03034317350379602 0.08758828374087799 0.07420581109833206 1:75 10:4.4429825 22:4.0846774 28:0.41380719 38:5.5054348 72:2.8455056 
1.019570540430192 1.001198245532699 3.799475268971646 0.7520312641360004 0.3245492394646467 0.9365933587783821 0.7935693103835685 1:75 70:11.511364 
0.8416850026702437 0.8265118768980102 0.353006341595521 0.620822470974561 0.2679286782599478 0.7731797748903761 0.6551110418323941 1:75 10:8.8859649 21:21.104167 
0.4406868639597186 0.4327341176880725 0.146188314994323 0.3250444792984366 0.1402840805997197 0.4048180562742785 0.3429937157807534 1:75 21:21.104167 70:5.7556818 
0.009793668068513886 0.009637315318912106 0 0.007220505123333497 0.00310420405389078 0.009000963278615983 0.007622317439886543 1:75 10:2.734143 13:1.011988 21:16.233974 29:1.6347499 
9999 0.7004627533336313 0.3091225457773495 9999 0.2267533336048068 31.29196743444098 0.5545551101189727 3:75 8:0.72460658 28:1.6552288 
1.105843108325288 1.085925852082669 0 0.8156639142104779 0.3520108874437377 1.015854286541511 0.8607168591476329 1:75 22:16.33871 
0.2292379584768514 0.2251153291837455 1.456719801558721 0.1690803423137931 0.07297011770765124 0.2105881240472031 0.1784217644868861 1:75 10:4.1012146 22:4.3988834 39:5.8442308 70:4.4274476 
9999 0.7000602015870391 0.309102758487813 9999 0.2268414355825915 0 0.5545551101189713 3:75 8:1.4492132 
1.401919055971281 1.376660358029463 0.6082407407800655 1.034048778760218 0.4462547990929503 1.287833381260404 1.09116783602582 1:75 79:30 
1.211473083595473 1.189653273909048 2.301425774186048 0.8935768297717736 0.3856353437671102 1.112878967255741 0.9429326131386332 1:75 10:17.77193 
1.093349753717803 1.073655523301004 0.7008343674421473 0.8064488851721409 0.3480333198585844 1.004373525842358 0.8509945352038764 1:75 10:3.554386 22:6.5354839 43:12.6625 69:0.9647619 
0 0 1.021802648529576 0 0 0 0 1:75 10:8.8859649 22:8.1693548 
0.1237337432608949 0.1214969842056954 9998.087966117835 0.09126115668327343 0.03938331674429258 0.1136551948847388 0.09630526547345791 1:75 10:8.8859649 22:8.1693548 
1.401919455977706 1.376665904299133 0.6082407378736728 1.034046106779571 0.4462547990929503 1.287824486045787 1.091165404995437 1:75 78:30 
-0 0 0 36.2970016977598 0 0 0 3:75 8:0.48307105 28:1.1034858 29:2.3613054 
-0.1604766400960571 0.2571820925056854 0.1069146767996934 0.1101949007513227 0.061276897644322 0.229076988456362 0.1854499740342314 3:75 8:0.43476395 28:0.33104575 29:1.4167832 36:1.9113208 70:1.1511364 82:22.511111 
-0.0789946502348199 0 0 0 0 0.05550646330172933 0 3:75 8:0.66886761 28:0.25465058 29:1.0898332 36:1.4702467 47:3.8961538 70:0.88548951 82:8.6581197 
-0 0 0 6816.017746255855 0 0 0 3:75 13:2.1926407 29:3.541958 
-0.006079626320910908 0 0 0 0 0 0 3:75 8:0.72460658 28:0.6620915 39:10.13 69:0.48238095 
-0.219983353673107 0.3938012455334206 0.1636616761711984 0 0.09382156958169199 0.3416746284910904 0.2838954863410537 3:75 8:0.48307105 36:3.1855346 39:16.883333 69:0.80396825 
-0 0 0 9999 0 0 0 3:75 6:25 7:25 8:1.4492132 
-0 0 0 9999 0 0 0 3:75 6:25 7:25 8:1.4492132 
-0 0 0 408.7393016977622 0 0 0 3:75 8:0.36230329 13:2.1926407 29:1.770979 
-0.2131856062350432 0.3668320654255132 0.1492177520175464 0 0.08553146206629315 0.3174604336497094 0.2588378704451397 3:75 6:25 7:25 8:0.72460658 29:2.2137238 36:1.1945755 48:7.0347222 71:0.57556818 
-0.5545600773744849 0.9528897321261771 0.3960630028473289 0.1822628958556242 0.2270181621870066 0.817073804169317 0.6870146103158313 3:75 8:0.72460658 38:22.021739 
-0.5141306280486169 0.8784280779927722 0.3651360927541453 0.1554357040655597 0.2092938961346004 0.7516638659553389 0.6333638830312163 3:75 8:0.28984263 28:0.6620915 69:0.9647619 73:18.418182 
-0.2392453317583563 0.424719570967221 0.1765507637669599 0.06285903846588832 0.1011983450680716 0.357234804535044 0.3062495704553575 3:75 72:4.552809 112:18.99375 
-0.175876356328861 0.1969411183494587 0.08174225357420102 0 0.04684476381370063 0.2160251419383618 0.1417716464415915 3:75 8:0.57968526 28:1.1034858 29:0.47226107 30:11.255556 69:0.3215873 72:0.7588015 
-0.152333768048825 0.1969348634206808 0.08169533969986802 0 0.04682666382810451 0.2052684682459381 0.1417184033421739 3:75 13:0.87705628 69:0.9647619 71:3.6836364 73:9.2090909 
-0.4939408636529926 0.8620841374461858 0.3583336838539612 0.1523041867010667 0.2053961888264956 0.7336131640188435 0.6215620053661308 3:75 8:0.48307105 40:18.759259 69:1.6079365 
-0.257313328136146 0.4560227552987601 0.1895526592178908 0 0.1086567083426558 0.3839100926659211 0.3288129947437309 3:75 8:0.28984263 28:0.6620915 29:0.47226107 30:11.255556 69:0.3215873 72:2.2764045 112:6.33125 
-0 0 0 0.03434437425908776 0 0 0 3:75 8:0.48307105 28:0.55174292 112:15.828125 
-0.3430319230694238 0.5876674521193184 0.2442695166308998 0.08355531129693693 0.1400091141699069 0.5031881829744083 0.4237028724636114 3:75 8:0.24153553 69:0.80396825 73:7.6742424 112:15.828125 
-0.2429237413358087 0.4146356066342969 0.1723296827782642 0.001849173766363953 0.09876599837278219 0.3624836207547479 0.2989100699631044 3:75 8:0.48307105 39:16.883333 72:3.7940075 
-0.5322397913140402 0.9114892023936674 0.3788460917837638 0.1835407053785544 0.2171549901013958 0.7818780527662905 0.6571613271743053 3:75 8:0.4140609 13:0.62646877 28:0.4729225 29:1.011988 30:24.119048 69:0.68911565 
-0.5978255422230202 1.00677436628145 0.4184319015258521 0.1859276967192053 0.2398422474702956 0.8712583262259649 0.7258211050562511 3:75 8:0.51757613 13:0.62646877 26:30 28:0.4729225 71:0.65779221 112:6.7834821 
-0.04444979164964074 0.1029337682850639 0.04275005821259738 0 0.02450416289350352 0.1192129670910009 0.07415899376027069 3:75 8:0.20703045 13:1.2529375 29:1.011988 112:13.566964 
-0.1938736012699148 0.2427018548682837 0.1007699157385415 0 0.05775434855363336 0.2444609965812121 0.1747974199686685 3:75 8:0.55738968 13:0.16866467 28:0.12732529 29:1.3622916 40:10.82265 69:0.18553114 112:3.6526442 
-0.4157561074919803 0.6351698732870356 0.2639115247005163 0 0.1512700728392714 0.5761341367882431 0.4577829593184222 3:75 72:11.382022 
-0.3208304752499789 0.5403612095004106 0.224580842137351 0.09921122345625739 0.1287172137510702 0.4675905563830297 0.3895522593872068 3:75 47:30 70:3.8371212 
-0.3518111488211587 0.6472958835533771 0.268981867492382 0 0.1541817004800237 0.5355824358610385 0.4665854878418207 3:75 8:0.72460658 13:0.54816017 36:2.3891509 70:1.4389205 82:14.069444 
-0.2424264931789852 0.2746332939755413 0.1139820450868882 0 0.06533433355027464 0.290218660288645 0.1977029304095246 3:75 8:0.57968526 29:1.4167832 38:8.8086957 72:2.2764045 
-0 0 0 5929.971101765908 0 0 0 3:75 8:0.72460658 13:1.0963203 29:1.770979 
-0.298659583787746 0.5037046868858664 0.2101753821628341 0.08067105913392456 0.1200493421209214 0.435871549739395 0.3631324250462546 3:75 8:0.72460658 13:0.73088023 27:30 28:0.55174292 
-0.2995233472699599 0.5036488223569212 0.2084985625760412 0.1053552908078415 0.1199359226971223 0.4358941118064585 0.3631086143184823 3:75 8:0.8695279 13:0.43852814 27:30 28:0.6620915 
-0.5978309351966541 1.006757401004744 0.4184251151461858 0.1859414408839302 0.2398419725996652 0.8712504682408002 0.7258091668227726 3:75 8:0.72460658 81:30 
-0.05438883262067858 0.02428026780415434 0.01004318584342374 0 0.005757515269678303 0.0147325138329158 0.01742679332712509 3:75 8:0.4140609 13:0.62646877 71:1.3155844 112:13.566964 
-0.007977881882228442 0 0 0 0 0 0 3:75 8:0.54345494 13:0.54816017 28:0.41380719 112:11.871094 
-0.4272934575305584 0.7196033891073287 0.2990840634041153 0.1329139945749528 0.1714344233987156 0.6227419840379907 0.5187926966816092 3:75 8:0.66886761 37:5.5659341 39:7.7923077 41:30 69:0.37106227 
-0.5960243227065758 1.003363675393061 0.4170178522585472 0.1862056544031064 0.2390331511147366 0.8684545111599659 0.7233649363150031 3:75 8:0.4140609 13:0.62646877 28:0.4729225 69:0.68911565 73:6.5779221 75:24.119048 
-0.5978330259479664 1.006790348821929 0.4184440134346026 0.1859598206428211 0.2398488258099035 0.8712703459652148 0.7258332312673295 3:75 8:0.36230329 13:0.54816017 25:30 28:0.41380719 112:11.871094 
-0 0 0 26.68552872734925 0 0 0 3:75 8:0.57968526 13:0.58470418 29:2.8335664 70:0.76742424 
-0.1846814466111796 0.3109729560450559 0.1292507557376129 0.05705320891923119 0.0740769517972792 0.2691226899063764 0.2241745369044167 3:75 8:0.72460658 41:30 
-0.3552833799059 0.5983398789805819 0.2486741313112997 0.1110640711027172 0.1425411517320209 0.5177926307421519 0.4313791352216282 3:75 8:0.72460658 11:6.1768293 41:30 
-0 0 0 1011.568350359184 0 0 0 3:75 8:0.72460658 28:1.6552288 
-0.1475518009979103 0 0 0 0 0.0181759436492173 0 3:75 69:4.8238095 
-0 0 0 9999 0 0 0 3:75 8:0.72460658 28:1.6552288 
-0 9998.999405693165 0 9999 0 0 0 3:75 6:25 7:25 8:1.4492132 
-0 9999 0 9999 0 0 0 3:75 6:25 7:25 8:1.4492132 
-0.03530598130418422 0 0 0 0 0 0 3:75 8:0.65873326 13:0.39866194 28:0.60190137 39:9.2090909 69:0.43852814 
-0 0 0 4260.801965924764 0 0 0 3:75 8:0.96614211 28:1.1034858 
-0 0 0 9999 0 0 0 3:75 8:0.96614211 28:1.1034858 
-0 0 0 3.848408954004281 0 0 0 3:75 6:25 7:25 8:0.92222656 28:0.60190137 69:0.43852814 72:1.0347293 
-9989.545895649506 0 0 5470.07172721566 0 0 0 3:75 8:0.72460658 28:1.6552288 
-0 9999 0 9999 0 0 0 3:75 6:25 7:25 8:1.4492132 
-0.09322173340928866 0.1567962162780276 0.06519023204744688 0.0315368848409505 0.03737661251627757 0.1357090568685659 0.1130648817380899 3:75 8:0.96614211 48:30 
-0.2915754530061499 0.4911974480625971 0.2041288626540928 0.08807949383065213 0.1169980538670514 0.425078238128456 0.3540992640741898 3:75 8:0.48307105 13:1.4617605 48:30 
-0 0.02445556454153262 0 0 0 0.02110062850771937 0 3:75 6:25 7:25 8:0.90575823 29:2.6564685 
-0 9999 0 9999 0 9999 0 3:75 6:25 7:25 8:1.4492132 
-0.1529938222255098 0 0 180.8618883226771 0 0 0 3:75 8:0.72460658 29:3.541958 
-0 0 0 0.09472440050735044 0 0 0 3:75 8:0.96614211 39:16.883333 
-0.338867670878625 0.5780064815482783 0.2371915683523978 0 0.1359479656933845 0.5001928261405112 0.411425611884994 3:75 6:25 7:25 8:0.63009268 13:0.57199322 29:1.5399818 47:6.6065217 71:0.80079051 
-0 0 0 1.461046817628382 0 0 0 3:75 8:0.62109135 11:3.5296167 29:1.011988 72:3.2520064 
-0.2303071631254404 0.1047443181462354 0.04321254165675808 4.268625012933856 0.02476833318121799 0.1920763838415569 0.07495698005653577 3:75 8:0.72460658 11:5.2944251 36:4.0956873 69:0.34455782 
-0.5404098785354262 0.9345905447372734 0.3884668268670515 0 0.2226687337645905 0.7996565032400462 0.6738269078901399 3:75 36:19.113208 
-0.4872564605263568 0.8245549669773882 0.342694361223951 0.1279775792569458 0.1964298652729587 0.7114698096353931 0.5944398290682856 3:75 8:0.36230329 13:1.0963203 82:30 
-0 0 0 51.79551030907263 0 0 0 3:75 6:25 7:25 8:0.96614211 28:0.55174292 29:1.1806527 
-0 0 0 625.3249857519427 0 0 0 3:75 6:25 7:25 8:0.96614211 13:0.36544012 28:0.82761438 
-0.007038675079463294 0 0 0.07566699047574518 0 0 0 3:75 8:0.62109135 13:0.62646877 29:2.023976 39:7.2357143 
-0.377061125930432 0.6350152752178794 0.2639248559893477 0.1173067738983262 0.1512730392556656 0.5495257729037247 0.457802550765823 3:75 8:0.72460658 38:7.3405797 48:30 
-0.4367773665306568 0.7359073882743733 0.3058535834024569 0.1276917566108914 0.1753150825110795 0.6374216368905488 0.5305367326892181 3:75 8:0.48307105 39:16.883333 43:10.552083 69:0.80396825 
-0.5857404363422869 0.9843629739364531 0.4091205416184038 0.1769808470287441 0.234504261654528 0.8526382863841402 0.7096604624068303 3:75 8:0.48307105 37:6.0297619 43:21.104167 69:0.80396825 
-0.5739609544556148 0.9555092560521279 0.3971147467248433 0.1676202352794167 0.2276189722448749 0.8308104581683023 0.6888374657912457 3:75 8:0.72460658 37:18.089286 
-0.2331923592233648 0.4046905243446571 0.1632145534997854 0 0.09354061301589479 0.3501427959050888 0.2831136555702229 3:75 6:25 7:25 8:0.37159312 13:0.67465867 28:0.84883526 36:3.920658 69:0.61843712 
-0 9999 0 9999 0 9999 0 3:75 6:25 7:25 8:1.4492132 
-0 0 0 9999 0 0 0 3:75 8:0.72460658 13:1.0963203 29:1.770979 
-0 0 0 9999 0 0 0 3:75 8:0.72460658 13:1.0963203 29:1.770979 
-0 9999 0 9999 0 9999 0 3:75 6:25 7:25 8:1.4492132 
-0 0 0 56.18730488581138 0 0 0 3:75 8:0.89182348 11:3.8011257 13:0.67465867 69:0.37106227 
-0 9999 0 9999 0 9999 0 3:75 6:25 7:25 8:1.4492132 
-0 9998.626887659944 0 9999 0 9998.675610628319 0 3:75 6:25 7:25 8:1.4492132 
-0.02535861746441074 0.191503442131237 0.01776374361456381 0 0.01017941866708275 0.165658853920543 0.03079806623710547 3:75 6:25 7:25 8:0.72460658 13:2.1926407 
-0.1590657484374795 0 0 0 0 0.08494038579768401 0 3:75 69:2.4119048 71:4.6045455 
-0 0 0 274.6526416389307 0 0 0 3:75 6:25 7:25 8:0.96614211 28:0.73565723 69:0.53597884 
-0.5940644724691151 1.000549657541699 0.4158061379540556 0.1885609928049264 0.23833754180304 0.8658624760603474 0.7212630516070588 3:75 6:25 7:25 8:0.80511842 39:22.511111 
-0.03846309789627491 0.217301547384337 0.02691463871338207 0 0.01542781053142949 0.1875161978909786 0.04668714010457437 3:75 6:25 7:25 8:0.62109135 28:0.945845 69:0.68911565 72:1.6260032 
-0.2160281286815268 0.4145781165450154 0.1722868613522395 0 0.09877589297005203 0.353100897189528 0.2989002782889659 3:75 8:0.48307105 47:16.883333 69:0.80396825 72:1.8970037 
-0 0 0 0 0 1.007261433689489 0 3:75 28:3.3104575 
-0.4564162999115795 0.6939708916383149 0.2883349899886188 0 0.1652750492460975 0.6296507866499279 0.5001533438187264 3:75 70:11.511364 
-0 0 0 9999 0 0 0 3:75 8:1.0869099 40:14.069444 
-0.2514990923479873 0.3824858870758458 0.1589717295304086 0.1351801483081379 0.09109652729708134 0.339043696876248 0.2756995966365091 3:75 8:0.96614211 47:16.883333 
-0.5235394419361442 0.8396583926360565 0.3489287126697165 0.135205795680864 0.2000034943242948 0.7410878502003474 0.6052636690391374 3:75 8:0.96614211 21:14.069444 
-0.2391723682287594 0.401606052876928 0.1669222144066407 0.07631717937162368 0.09569219013554393 0.3471076084368028 0.289547452996609 3:75 47:30 
-0.5978290721755146 1.006757983752672 0.4184257230976502 0.185912536347166 0.2398388484391897 0.8712468396648551 0.7258102333047602 3:75 9:30 
-3.788075908503096 0 0 1507.050835317182 0 0 0 3:75 8:1.4492132 
-9999 0 0 4343.891687434388 0 0 0 3:75 8:1.4492132 
-0.222340841630983 0 0 0 0 0 0 3:75 13:4.3852814 
-4.957292483255671 0 0 0 0 9997.617856953453 0 3:75 28:3.3104575 
-0.028161117436582 0 0 0 0 0 0 3:75 8:0.4140609 28:0.945845 47:7.2357143 69:0.68911565 72:1.6260032 
-0 0.07159809465661762 0.02970825272670394 0 0.01702967011620666 0.07556625730295734 0.0515412122427797 3:75 8:0.48307105 29:1.1806527 36:9.5566038 
-0.06218305560754251 0 0 0 0 0 0 3:75 8:0.72460658 36:9.5566038 
-0.01095614204429928 0.04886244337164584 0.007659693285887712 0 0.004409662752678113 0.04232744651837762 0.01330328593008233 3:75 6:25 7:25 8:0.60383882 28:0.55174292 29:1.1806527 70:1.4389205 72:1.4227528 
-0.5569101962103282 0.9369193418114857 0.3897986549582664 0.188400780003286 0.2234294743271053 0.8107961872923255 0.6761536555642981 3:75 6:25 7:25 8:0.92222656 28:0.30095068 29:0.64399237 48:20.464646 
-0 0 0 0.003447520418348993 0 0 0 3:75 71:2.3022727 112:23.742188 
-0.5074840162496173 0.8516755735780873 0.3539668831374727 0.1577236871032091 0.2028882062152846 0.7383786678538989 0.6139958163470497 3:75 112:30 
-0 0 0 11.64411817426238 0 0 0 3:75 8:0.36230329 13:1.0963203 29:1.770979 71:2.3022727 
-0.05048779023533465 -0.08045901762872551 0.0326636738688245 0.05438855167096816 0.01864447804368467 0.07053021150502017 0.05703782747100487 4:75 45:30 52:12.987179 
-0.6047991043833317 -0.9638121861219178 0.3912678265530867 0.6515300897998981 0.223348633508752 0.844852496591957 0.6836656438860842 4:75 57:30 
-0.6246605462324717 -0.9975758710255112 0.402382385362252 9999 0.2296878833728883 0.8709204990826356 0.7028367868346901 3:75 6:25 8:0.96614211 28:1.1034858 
-0 -9999 0 9999 0 0 0 3:75 6:25 7:25 8:1.4492132 
-0.5870792037740585 -0.9355791505541674 0.3798054774926893 0.6324393086605388 0.2168057106046264 0.8201007741886808 0.6634070677044552 4:75 52:16.233974 57:15.828125 59:25.325 
-0.4392781536419168 -0.7000311332292964 0.2841863045539503 0.4732124668380873 0.1622238252542563 0.6136312944972906 0.4963847596742507 4:75 83:30 85:21.104167 
-0.09626169376474777 -0.1532315449552425 0.06234285355572401 0.1035260498150716 0.03568587808741162 0.1344145357519901 0.112622418329142 4:75 52:20.779487 53:10.13 
-0.5196106650174612 -0.82805851885236 0.3361544216188357 0.5597575183455404 0.1918827630054704 0.7258492665462942 0.5871378163486145 4:75 45:30 52:17.316239 
-0.61078180735002 -0.9733458542092221 0.3951370240499714 0.6579715201242748 0.2255584519158817 0.8532099397765107 0.6905760716825643 4:75 52:8.6581197 53:16.883333 85:21.104167 
-0.5557051477079562 -0.8855774220997242 0.3595112666998259 0.5986357647313852 0.2052226334682384 0.7762746007046737 0.6280891935590565 4:75 53:30 
-0.1360238369957783 -0.2166434204848489 0.08802554275325099 0.1464105410656836 0.05030178708744537 0.1899525365765563 0.1530969702650804 4:75 52:17.316239 53:16.883333 
-0.6228628056614811 -0.9926005603867675 0.4029549041921281 0.6709848117621612 0.2300193384512628 0.8700891957572644 0.703834759219611 4:75 83:28.138889 84:30 
-0.622937030376957 -0.9927161669562977 0.4030017900673378 0.6710604054603607 0.2300411682420541 0.8701873710504842 0.7040786323725121 4:75 84:30 
-0.4802086725584415 -0.7652648268666262 0.3106616966314797 0.5173110776579384 0.1773365214203501 0.6708118667728115 0.5426381633384817 4:75 83:14.069444 85:30 
-0.6179152645992934 -0.9847207506300779 0.3997557849749292 0.6656626468273628 0.2281935722600531 0.8631828865625758 0.6984101048555785 4:75 83:30 
-0.5490955578605807 -0.8750299729067428 0.3552321968657476 0.5915105951656133 0.202772110060922 0.7670320729636119 0.6206285392917563 4:75 85:30 
-0.3790319910075597 -0.6040324189271992 0.245200153346447 0.408307173625656 0.1399809288207964 0.529460080600351 0.4267957790045444 4:75 52:20.202279 57:14.069444 
-0.5757711170392203 -0.9175537754439197 0.3724884679518907 0.6202542471440176 0.2126264680459319 0.8043110746917361 0.650620145570538 4:75 52:10.936572 55:30 57:9.9967105 59:21.326316 83:5.9239766 
-0.5765784044284069 -0.9188430686923814 0.3730100999717422 0.6211252656750854 0.212925733804036 0.8054334302554057 0.6515296874058442 4:75 52:10.695324 53:2.9794118 55:23.835294 57:14.897059 59:23.835294 62:11.917647 
-0.5881615050814315 -0.9372978820978992 0.3805008989867201 0.6336007794934675 0.2172033641614232 0.8216082661984057 0.6646480073530645 4:75 52:12.987179 59:30 
-0.2113192074691457 -0.3367522730014149 0.1367104627243629 0.227636435194763 0.07803454722495717 0.295189691033038 0.2470887623392401 4:75 52:15.584615 53:10.13 57:12.6625 
-0.02946651741896914 -0.0469562424421211 0.01907243655570911 0.03175874863065482 0.01086892548916225 0.04118076340016173 0.03657057292494723 4:75 52:22.263736 57:9.0446429 
-0.2433742661290846 -0.3881019592683433 0.1573663341237751 0.2624379747232163 0.08969393812512855 0.3400712849991574 0.2763945383266693 4:75 52:19.480769 53:12.6625 
-0.6103972044323042 -0.9727399439417626 0.3948924480315791 0.6575621082748784 0.2254097132789481 0.852674461616455 0.689965652947431 4:75 52:12.987179 57:12.6625 62:20.26 83:11.255556 
-0.6098643978902722 -0.9718907104905606 0.3945476853819783 0.6569879584512407 0.2252155986086603 0.8519373412775222 0.689338496056692 4:75 52:15.584615 53:5.065 55:20.26 57:12.6625 
-0.5474581978558317 -0.872438127483016 0.3541721813751977 0.5897604220265538 0.2021741803279361 0.7647573988363534 0.6186329253547435 4:75 52:19.480769 62:30 
-0 -9999 0 9999 0 0 0 3:75 6:25 7:25 8:1.4492132 
-0 -9999 0 9999 0 0.9949378210165526 0 3:75 6:25 7:25 8:1.4492132 
-0 -9999 0 9999 0 9999 0 3:75 6:25 7:25 8:1.4492132 
-0 -9999 0 9999 0 9999 0 3:75 6:25 7:25 8:1.4492132 
-0 -9999 0 9999 0 9999 0 3:75 6:25 7:25 8:1.4492132 
-0 -9999 0 9999 0 9999 0 3:75 6:25 7:25 8:1.4492132 
-0.6231636939442246 -0.9930752427843267 0.4031491898563582 0.6713042565488951 0.2301306159018326 0.8705027758340249 0.7043305335538848 4:75 115:30 
-0.496115143673218 -0.7906111788618265 0.3209558257710099 0.5344411123406524 0.1832100314153626 0.6930258272414768 0.5606002504163073 4:75 52:12.987179 53:12.6625 62:30 
-0.6219812063344234 -9999 0.4023836540119831 9999 0.2296935963645698 9998.87391499697 0.702837780280858 3:75 6:25 7:25 8:1.4492132 
-0.6231561786948405 -0.9930601493953299 0.4031437120452695 0.6713020659262133 0.2301244469199993 0.8704971376291175 0.7056896328771876 4:75 51:25.974359 
-0.3642332864936535 -0.5804511266077433 0.2356394472019363 0.3923770897286896 0.134507694743457 0.5088108613686958 0.4115839683811113 4:75 83:28.138889 85:30 
-0.5041939198919219 -0.8034999740659964 0.3261689117123829 0.5431583035348433 0.1861865180805502 0.7043188694038361 0.5687342066713209 4:75 52:25.974359 
-0.6189559862360942 -0.9863744491539352 0.4004247443802603 0.6667734731428751 0.2285723621623792 0.8646305772616779 0.6994724145507224 4:75 52:10.82265 53:16.883333 55:16.883333 59:16.883333 85:5.2760417 
-0.5664898542079631 -0.9027629517242099 0.3664856148662987 0.6102526663843201 0.2092006346722564 0.791339040784488 0.6402820378771942 4:75 45:8.3719008 52:11.806527 53:18.418182 62:18.418182 
-0.5726335623981067 -0.9125511289978792 0.370458905366733 0.6168705222118827 0.2114679326125686 0.7999184780721139 0.647742676353804 4:75 45:18.418182 52:15.584615 57:12.6625 
-0.6163815132782824 -0.982269928923184 0.3987636666125867 0.664004775992895 0.2276270756314254 0.8610331773109318 0.6965143766019336 4:75 45:30 52:8.6581197 85:21.104167 
-0.5818619835887655 -0.9272624871129505 0.3764308804823025 0.6268211494148994 0.214871928091079 0.8128100774333237 0.6576668268328876 4:75 45:30 
-0.4222265314693178 -0.6728640627574153 0.2731554842416648 0.4548551715612033 0.155926356603385 0.5898186632356938 0.4748531027869486 4:75 52:12.987179 53:8.4416667 57:21.104167 
-0.433937079414947 -0.6915549694122399 0.2807279451547283 0.4674905994967193 0.1602358388428949 0.6061890403208269 0.4904258027314162 4:75 52:12.987179 53:25.325 
-0.623088029052979 -0.9929608840977304 0.4031007971679535 0.6712296250416092 0.2301038850960935 0.8704020886945839 0.7040932097084875 4:75 52:19.480769 53:6.33125 64:30 
-1.391487381857504 -1.581221722992427 -1.596567177654235 1.279662232936553 0.6797683917401027 1.521447029652143 1.365469665719223 1:75 10:4.4429825 71:4.6045455 77:30 
-5.220924100488615 -0.03004953535309276 -0.03034145377136353 0.02431956613253106 0.0129158281027504 0.02892357125629426 0.02595739529984059 1:75 22:1.3615591 37:3.014881 70:3.8371212 72:5.6910112 
-15.85011928084829 -0.7693899116794999 -0.7768595444778321 0.6226654420928401 0.3307630354217232 0.7403009389885705 0.6644121889447681 1:75 10:8.8859649 72:5.6910112 
-1.391528722880227 -1.581243091549416 -1.596588608744837 1.279682689759533 0.6797776842018829 1.521465616157509 1.365490432050918 1:75 10:2.9619883 22:2.7231183 37:6.0297619 111:30 
-0 -1.116888930340604 -1.127736486510293 0.9038892207493077 0.4801514271282212 1.074656495264486 0.9644964948210458 1:75 10:2.2214912 22:6.1270161 37:13.566964 69:0.60297619 
-0 -0.6758662735528705 -0.6824218805876425 0.5469620153008815 0.2905527880373449 0.6503178880375435 0.5836426402691872 1:75 10:3.554386 71:7.3672727 
-9999 -0.5064774399020625 -0.5113872856067437 0.4098823384487633 0.2177375040887591 0.4873262084218923 0.437369694881187 1:75 10:8.8859649 22:8.1693548 
-3.107481480433862 -0.3384071181294701 -0.3416862705556323 0.2738699068336227 0.1454780043081669 0.325613625635477 0.2922305686918972 1:75 22:5.4462366 40:9.3796296 69:2.4119048 
-3.13627567311222 -0.9248616917850082 -0.9338336170143985 0.748477373487175 0.3975994886944847 0.8898904306114073 0.7986656653352135 1:75 22:1.633871 37:3.6178571 70:9.2090909 
-2.813194218374155 -0 -0 0 0 0 0 1:75 10:2.9619883 22:2.7231183 38:7.3405797 69:2.0099206 71:0.76742424 
-4.063427977637514 -0 -0 0 0 0 0 1:75 8:0.36230329 22:4.0846774 69:2.4119048 
-0.8534093042082788 -0.112884942293479 -0.1139717536064364 0.09134978839627272 0.04852897489761773 0.1086271271427359 0.09747821318083166 1:75 10:5.9239766 22:5.4462366 37:12.059524 
-3.055071472412103 -0.3436960941263391 -0.347038702254123 0.2781442600959868 0.1477551599422594 0.3307060516942898 0.2968003573842619 1:75 22:8.1693548 69:2.4119048 
-4.888375199129663 -1.393192092431017 -1.406718558112756 1.127494041990079 0.5989366513910745 1.340529373552756 1.203103243546236 1:75 22:5.4462366 40:18.759259 69:1.6079365 
-1.3916603629273 -1.581452961861759 -1.596798796280272 1.279852911583168 0.6798625024546998 1.521671171363797 1.365672434149477 1:75 10:1.61563 22:7.4266862 23:30 37:4.9334416 40:5.1161616 69:0.21926407 77:30 
-1.847087625021782 -0 -0 0 0 0 0 1:75 10:4.84689 22:5.941349 38:12.011858 69:0.43852814 
-9.784714873503217 -0 -0 0 0 0 0 1:75 10:5.9239766 22:5.4462366 71:3.069697 
-0.1483907137992675 -0.06725227715333112 -0.06790117511567034 0.05443141352215934 0.02891240429350811 0.0647090032425796 0.05807529451743974 1:75 69:3.6178571 71:2.3022727 
-0 -1.250051234986278 -1.262181786268668 1.011654557520612 0.5373943541052488 1.202793974781558 1.079491956663024 1:75 10:5.3854333 22:4.9511241 37:1.0963203 38:13.346509 69:0.14617605 71:0.27906336 
-0 -0 -567.7551268194566 -0 0 0 0 3:75 6:25 8:0.82812181 28:1.4187675 
-0 -9999 -0 -0 0 0 0 3:75 8:0.48307105 13:1.4617605 29:2.3613054 
-0.2008358687328224 -0.3658369790263769 -0.2736797986112051 -0.1483717692402893 0.09257894498387569 0.2093272268466283 0.2256980034541667 3:75 117:30 119:6.3471178 
-0.3341066183745161 -0.07586199667481271 -0.4513096984519682 -0.2445827510937319 0.1526144845734771 0.2537801322018916 0.3721370878691 3:75 8:0.15254875 67:5.9239766 110:6.6644737 119:6.3471178 
-0 -7.091632963384686 -0 -0 0 0 0 3:75 8:0.4391555 28:1.0031689 110:1.9185606 119:3.6544012 
-9999 -9999 -0 -0 0 30.11154148888918 0 3:75 8:0.72460658 28:1.6552288 
-0.006860974630981745 -0.01399433004614697 -0.004151606913408403 -0.005117733173353176 0.003201238097181018 0.009681014039307892 0.007803923118218778 3:75 6:25 8:0.42939649 67:4.1687243 70:0.8526936 71:0.34107744 73:3.4107744 110:2.3449074 119:4.4664903 
-0.6646775510942688 -5.50673534822552 -0.8867873517308595 -0.4806827844120513 0.2999370282635543 0.2682794574710578 0.7313355333740756 3:75 71:9.2090909 
-0.7470760886898216 -1.3722730061773 -1.021927370627356 -0.553864979683045 0.3456246425012138 0.8699770588058632 0.8426906050931663 3:75 8:0.19322842 117:16.883333 119:8.0396825 
-0.8472931573744514 -9999 -1.156756523081129 -0.6269175888633657 0.3911875483861897 0.9145972380664407 0.9538279322097363 3:75 8:1.0869099 40:14.069444 
-0.01646756307433548 -0.05519301266699388 -0.02802560220339258 -0.0151706680629232 0.009443740317104486 0.1533501263314049 0.02307191548506498 3:75 117:19.480769 119:9.2765568 
-0 -0 -0.4928313784128881 -0 0 0 0 3:75 6:25 8:1.0869099 71:2.3022727 
-0.2659747725208356 -0.4938112620706022 -0.4150321873693168 -0.1983081469820674 0.123732099245499 0.3599057717266566 0.3017107466533641 3:75 6:25 8:0.31054568 71:0.65779221 119:8.6139456 
-0 -48.17333217253879 -0 -0 0 0 0 3:75 8:1.1147794 11:5.7016886 
-0.481042990331259 -0.9021230763920303 -0.6935689179214026 -0.3586688768769467 0.2238114099944352 0.6523161126906982 0.5456991421050267 3:75 6:25 8:0.16102368 110:7.0347222 119:6.6997354 
-0 -9999 -0 -0 0 0 0 3:75 8:0.8695279 28:1.324183 
-0 -9999 -0 -0 0 0 0 3:75 6:25 7:25 8:1.4492132 
-9998.592382739591 -9999 -0 -0 0 0 0 3:75 8:1.4492132 
-0.1662501324844009 -0.3153709002169106 -0.2567930306718289 -0.1239575474102864 0.07734144067807622 0.2252831969991773 0.1886054124973232 3:75 6:25 8:0.4140609 11:7.0592334 13:0.12529375 28:0.189169 29:0.2023976 30:4.8238095 119:3.4455782 
-0.3614027714583537 -0 -0.4853873925114705 -0.2630900317715187 0.1641652531851595 0.213568047934046 0.4002657873832109 3:75 8:0.1380203 110:9.0446429 119:5.7426304 
-0.6422295081841068 -1.215805117012887 -0.8855536162636917 -0.4798956239843302 0.2994510327868058 0.9185266840507827 0.7301838525298729 3:75 8:0.18115165 71:0.38371212 117:30 119:5.0248016 
-0.5591473406017963 -1.039505265071881 -0.8086291095630441 -0.4168948491373489 0.2601422137584881 0.7576016299356497 0.6342863530312831 3:75 6:25 8:0.8695279 11:9.8829268 
-0.6217062983219981 -1.167476417787626 -0.8568314280689493 -0.4635367121322229 0.2892278548647123 0.8421858776249632 0.7052408263508615 3:75 6:25 8:0.4140609 13:0.20882292 28:0.15764083 29:0.33732934 75:16.079365 119:5.7426304 
-0 -9999 -0.5181424611947872 -0 0 0 0 3:75 6:25 7:25 8:1.4492132 
-0.4832171637775964 -0.9109352237270796 -0.6648177302200357 -0.3603156278958718 0.2248273602023922 0.658270900982259 0.5481794038929385 3:75 67:30 
-0 -9999 -9999 -0 0 0 0 3:75 6:25 7:25 8:1.4492132 
-0.4830331796733987 -0.9048670104520399 -0.6644619533290407 -0.3601162352487137 0.2247029441724285 0.650757485434715 0.547917267885919 3:75 8:0.72460658 67:30 
-0 -9999 -9999 -0 0 0 0 3:75 6:25 7:25 8:1.4492132 
-0.6377321846686652 -1.921658826236394 -0.8772297231318182 -0.4754892376864868 0.2966978197554439 0.8639189440302418 0.7234380199657546 3:75 6:25 7:25 8:0.96614211 11:8.2357724 
-0 -9999 -0 -0 0 0 0 3:75 8:0.48307105 13:1.4617605 29:2.3613054 
-0 -2395.308564033748 -0 -0 0 0 0 3:75 6:25 7:25 8:1.3042918 28:0.33104575 
-0.377148600308127 -9999 -0.148180591132087 -0.0801693885628347 0.05002370526844886 0 0.1219708240043701 3:75 8:0.48307105 13:1.4617605 29:2.3613054 
-0 -0.1610060677699262 -0 -0 0 0 0 3:75 8:0.65873326 13:0.19933097 71:0.41859504 119:5.4816017 
-0.09689632219928491 -9999 -0 -0 0 0 0 3:75 8:0.8695279 28:1.324183 
-0.04251137357323267 -0 -0.729554326935013 -0.031261065498473 0.01947577872220696 0.0343907249669589 0.04762569160591429 3:75 6:25 8:1.2881895 73:5.1161616 
-0.1803872759148386 -0.3567139552448222 -0.6790633785908561 -0.1344591168213603 0.08390982160564629 0.2440259370168552 0.2045773494670329 3:75 6:25 8:0.79047991 13:0.39866194 21:3.8371212 28:0.60190137 69:0.43852814 
-0.9656784442350211 -1.813716579243393 -1.328490724448064 -0.7199990500717739 0.4492682512180776 1.30811600476644 1.095447094508676 3:75 8:0.27172747 118:30 119:7.5372024 
-0.7885695790998468 -0 -1.071170926493799 -0.5805806350894217 0.3622668157149979 0.7237236997965223 0.8833246575370722 3:75 8:0.72460658 11:12.353659 
-0 -9999 -9999 -0 0 0.5176549421174471 0 3:75 6:25 7:25 8:1.4492132 
-0 -9999 -9999 -0 0 9999 0 3:75 6:25 7:25 8:1.4492132 
-0 -9999 -9999 -0 0 9999 0 3:75 6:25 7:25 8:1.4492132 
-0 -9999 -9999 -0 0 9999 0 3:75 6:25 7:25 8:1.4492132 
-0 -2.213699375157553 -0 -0 0 0 0 3:75 6:25 7:25 8:0.54345494 119:7.5372024 
-0.6324348212770387 -0.5803875512749758 -0.8699215594697371 -0.4715402209209708 0.2942358482299064 0.8567529019342693 0.717430589333606 3:75 6:25 7:25 8:0.48307105 119:8.0396825 
-0 -9999 -9999 -0 0 9999 0 3:75 6:25 7:25 8:1.4492132 
-0.9641071600038259 -1.810778502547142 -1.32635064419743 -0.7188296791104061 0.448536345636068 1.306046211613481 1.093668329877855 3:75 6:25 8:0.48307105 11:4.1178862 13:0.73088023 67:30 
-0.2004973053604243 -0.3771376892731453 -0.2791466893904833 -0.1494840688023042 0.09328502118222003 0.2715983532080406 0.2274469455983034 3:75 6:25 8:0.80511842 13:0.97450697 28:0.36782861 75:18.759259 
-0.7785999034103791 -1.462360879910289 -1.069540340119359 -0.5805180701872775 0.3622352886705211 1.054755700935149 0.883231404771217 3:75 6:25 8:0.72460658 13:0.73088023 28:0.55174292 75:28.138889 
-0 -0 -2081.965452592775 -0 0 0 0 3:75 6:25 8:1.0033014 28:1.0186023 
-0 -0 -0.4287263844944041 -0 0 0 0 3:75 6:25 8:0.85247833 13:0.25795773 28:0.38946559 29:1.6668038 
-0.3126082883500864 -8551.227636913824 -9998.91226529664 -0.2330710710822562 0.1454309595981223 9998.905813010859 0.3546060115255651 3:75 6:25 7:25 8:1.4492132 
-0.3189884052929165 -0.6763451603089884 -0 -0.2382448202975658 0.1486789330980769 0.4530290410200606 0.3623952241877957 3:75 6:25 8:0.80511842 28:0.36782861 29:0.78710179 71:1.0232323 73:5.1161616 
-0.5678928907779812 -0 -0.7734046095319577 -0.4191994087502878 0.2615747240971735 0.5937591831103015 0.6377966083859843 3:75 119:12.059524 
-0 -0 -7348.516401508541 -0 0 0 0 3:75 6:25 8:0.96614211 28:1.1034858 
-1.553687244922395 -1.760120481843891 -1.769872082552312 -1.320106012182584 -1.550665027321964 1.721354964711254 1.61394802874605 2:75 114:30 
-1.55115412230579 -1.757252921863272 -1.766983818341253 -1.317962033950471 -1.54813657841986 1.718550481882727 1.611321431339994 2:75 8:0.72460658 21:21.104167 
-1.551153992164041 -1.757255989598601 -1.766990119180703 -1.317961900744842 -1.548138422934897 1.718555515886652 1.611327633996779 2:75 21:21.104167 47:25.325 
-1.553688681927318 -1.760114022711988 -1.769871049733863 -1.320104251929948 -1.550668520130782 1.721355654875926 1.613950333889481 2:75 9:30 
-0 -9999 -9999 -0 -9999 -0 0 3:75 6:25 7:25 8:1.4492132 
-0.7056216202402851 -1.118377386282162 -1.119167416600586 -0.4739066020361808 -0.685428059498451 -0.2760980470653814 0.7998309081973142 3:75 8:0.48307105 46:6.7533333 51:8.6581197 61:30 
-0.6119268191396091 -0.9635741276876877 -0.9598012019378876 -0.4064206367124645 -0.5946549755158206 -0.2367757340065938 0.6859373064104424 3:75 46:13.506667 51:8.6581197 83:18.759259 
-0.7049390616264437 -1.117410649554765 -1.118269922390269 -0.4735287163678611 -0.6847574126736754 -0.2758781362141163 0.7991962460681495 3:75 51:8.6581197 54:30 85:21.104167 
-0.6799537404472373 -1.077439063456737 -1.078011582253969 -0.4564819796569613 -0.6605029963381084 -0.2659449326176823 0.770425143798775 3:75 54:30 
-0.5417441989904617 -0.8588931744285924 -0.8596711971222212 -0.3640270499932313 -0.526233863517758 -0.2120796898539826 0.6143811629297757 3:75 51:17.316239 54:30 
-0 -9999 -9999 -0 -9999 -0 0 3:75 6:25 7:25 8:1.4492132 
-0.7106644021965797 -1.126484957714049 -1.12735604996121 -0.4773747559999033 -0.6903272125503058 -0.2781146150239194 0.8056835364981307 3:75 51:8.6581197 60:30 85:21.104167 
-0 -9999 -9999 -0 -9999 -0 0 3:75 6:25 7:25 8:1.4492132 
-0.5219899796495999 -0.8010137639141912 -0.7830024578907404 -0.3315572519399302 -0.5080712973982506 -0.1931583186591138 0.5595841090440073 3:75 46:13.506667 51:17.316239 
-0.7056815402460185 -1.11859260510086 -1.119455481880755 -0.474030958356922 -0.6854842629809768 -0.2761635300460683 0.8000384949855585 3:75 51:17.316239 54:18.759259 61:30 
-0.7106433346866249 -1.126427515581775 -1.127279748041062 -0.477341034082675 -0.6902996071666198 -0.2780985001155708 0.8056285483433158 3:75 46:13.506667 51:8.6581197 60:30 
-0.5650995375310958 -0.8950491849994363 -0.8952467367424349 -0.379088703492689 -0.5489461242331599 -0.2208557434962952 0.639810069073809 3:75 51:21.645299 54:18.759259 
-0.7116616093888589 -1.128079141080456 -1.128948943364718 -0.4780537644131353 -0.6912927772671675 -0.2785047071122462 0.8068220138567379 3:75 83:28.138889 84:30 
-0.712060194248292 -1.128339869651628 -1.128954239420158 -0.478055669813517 -0.6916970714601544 -0.278509041300237 0.806831452545103 3:75 84:30 
-0.6890971969603135 -1.092058503155009 -1.092737794745394 -0.4627202645487351 -0.6693743117911057 -0.2695746619890859 0.7809434575039084 3:75 83:30 
-0.7123187859390022 -1.128754151915056 -1.129364628300392 -0.478227544709697 -0.6919487171208102 -0.2786113131641456 0.8071247431982187 3:75 113:30 
-0.711793786607698 -1.128279239519758 -1.129149762270446 -0.4781352421042606 -0.6914238571566961 -0.2785568195867733 0.8069741632020297 3:75 8:0.48307105 46:3.3766667 51:10.82265 56:28.138889 61:28.138889 
-30.99124774229287 -9999 -1.119352708006269 -0.4733146776825068 -30.46507370589397 -0.2757489273594843 0.7988320328031893 3:75 28:3.3104575 
-0 -9999 -9999 -0 -9999 -0 0 3:75 6:25 7:25 8:1.4492132 
-0.712024866502594 -9999 -9999 -0.4782834498317414 -9999 -0.2786393919663626 0.8072110636309165 3:75 6:25 7:25 8:1.4492132 
-0.6248765138404149 -0.9912874849003156 -0.9926087534720687 -0.4203191724295676 -0.6069672029834224 -0.2448710186414763 0.7093863276693182 3:75 46:20.26 83:28.138889 
-0.7119294654371442 -1.128485633619582 -1.129358769407419 -0.4782226104255461 -0.6915460163575191 -0.278611323980111 0.8071159595549304 3:75 46:27.013333 56:30 
-0.3063579887655013 -0.4833540093568372 -0.4820927761302494 -0.2041325038300833 -0.2976980182045798 -0.118928703386044 0.3445328262892627 3:75 46:27.013333 51:8.6581197 
-0.5120133841333485 -0.8116062651891589 -0.8122402537634392 -0.3439411381908035 -0.4973567716398238 -0.2003741367069837 0.5804746610600052 3:75 46:10.13 51:12.987179 58:30 
-0.7120084033722049 -1.128613976398666 -1.1294913133351 -0.4782801417138096 -0.6916241284408552 -0.27864029659357 0.8072150252577777 3:75 54:30 56:30 83:18.759259 
-0.6602978606583489 -1.045226273439293 -1.045036611926767 -0.442515832040434 -0.6414459881758026 -0.2578109313279927 0.7468539557224859 3:75 51:25.974359 
-0.6520549099162939 -1.033226113765778 -1.033767417457943 -0.4377470714669213 -0.6334019837292024 -0.2550280024407686 0.7388060956563618 3:75 58:30 
-0.5273273876399523 -0.8358792140050926 -0.836518425082355 -0.3542201508615976 -0.5122331523462602 -0.2063672639934409 0.5978356522502943 3:75 51:17.316239 58:30 
-0.7088876658052288 -1.121189803433632 -1.120304642654965 -0.4743863771158867 -0.6886918523921999 -0.2763789694307229 0.8006541567526932 3:75 46:13.506667 51:8.6581197 85:21.104167 
-0.5608509379150751 -0.8892720524151059 -0.8901696528287008 -0.376943636746201 -0.5447753961946137 -0.2196054939400692 0.6361722497477366 3:75 46:30 
-0.2280723435574455 -0.3677439433851957 -0.3724542868261085 -0.157721569239777 -0.2212773423763423 -0.09188836733832169 0.2661898789179474 3:75 46:20.26 51:12.987179 
-0.9086935170092799 -1.274065729011895 -1.295818537881311 -0.6342786728226596 -0.9043835289912849 -0.3860430983158679 -1.192779950022556 4:75 8:0.44106488 13:0.57199322 28:0.14393294 30:7.3405797 32:8.8086957 34:22.021739 37:3.1459627 41:11.01087 42:30 43:5.5054348 69:0.4194617 
-0.907124507776483 -1.271872377706865 -1.293592621203318 -0.6331830776355201 -0.9028276326185255 -0.3853780364687841 -1.190728513472961 4:75 8:0.57968526 43:25.325 73:4.6045455 74:25.325 
-0.9086999368588512 -1.274073306880941 -1.295827243851026 -0.6342840047823673 -0.9043843114911591 -0.3860522313661437 -1.192786061577801 4:75 8:0.48307105 28:0.36782861 31:30 32:22.511111 35:30 43:14.069444 
-0.8088257683749229 -1.134043051867782 -1.153405527519977 -0.5645726427690761 -0.804990009245329 -0.3436201875331673 -1.061687975749039 4:75 8:0.8695279 43:25.325 
-0.824171262328617 -1.155559410213986 -1.175288567043711 -0.5752839200406128 -0.8202651234741062 -0.3501384045527806 -1.081829863589665 4:75 8:0.76274377 36:4.0238332 70:1.2117225 73:2.423445 74:13.328947 80:13.328947 
-0.907076487764843 -1.271802451917075 -1.293515781614811 -0.6331544602312121 -0.9027744373357208 -0.3853607863371063 -1.190656207083053 4:75 70:3.8371212 73:15.348485 74:30 
-0.7170060898238858 -1.005309611408367 -1.02257251493698 -0.5004852622645719 -0.7136095001792352 -0.3046085659298969 -0.9411664336095414 4:75 70:11.511364 
-0.9029100899844729 -1.265952449858619 -1.287562997676896 -0.6302440600786808 -0.8986236020010986 -0.3835883203404426 -1.185182906303193 4:75 8:0.64409474 28:0.36782861 29:0.78710179 32:22.511111 33:28.138889 70:1.2790404 
-0.9068182417343226 -1.271438512182145 -1.293142015458651 -0.6329658965318896 -0.9025162671144086 -0.3852486220121068 -1.190317375426755 4:75 8:0.90575823 28:0.41380719 32:25.325 70:1.4389205 
-0.1664591384356257 -0.2333898781641317 -0.2374934437445244 -0.1161908353696316 -0.165666710920178 -0.07072479950725603 -0.2184888617877496 4:75 8:0.85247833 37:6.3844538 43:3.7242647 71:1.6251337 
-0.9086667352166291 -1.274022725062026 -1.295773348683324 -0.6342610088579196 -0.9043516625602323 -0.3860295094539807 -1.192737917503434 4:75 8:0.77291369 13:0.29235209 30:11.255556 34:30 36:2.5484277 70:1.5348485 
-0.5848600395894127 -0.8200269084938598 -0.8340493478445383 -0.4082379265278646 -0.5820907517923755 -0.2484650138772237 -0.7677042405648887 4:75 8:0.63009268 13:0.57199322 36:1.662018 37:4.7189441 43:2.7527174 71:1.2011858 80:11.01087 
-0.9085843589956427 -1.273920945318035 -1.295663703389405 -0.634203708192793 -0.9042788906192928 -0.3859969542113222 -1.192638637057242 4:75 116:30 
-0.645013978388017 -0.9043705668494197 -0.9197843173437075 -0.450227246733673 -0.6419573546440195 -0.2740214450724011 -0.8466767787675262 4:75 8:0.80511842 37:8.0396825 43:14.069444 
-0.641212392192676 -0.8990355101340951 -0.9144120808123 -0.4475703516021117 -0.638171802564873 -0.2724143693947398 -0.8416746022617726 4:75 8:1.2076776 40:9.3796296 
-0.9086959224780876 -1.274074299403827 -1.29582634963573 -0.6342869024970972 -0.9043890053302454 -0.3860489062519191 -1.192786394278499 4:75 8:0.5520812 13:0.62646877 28:0.15764083 29:0.67465867 32:9.647619 33:24.119048 74:12.059524 76:30 86:30 
-0.7813312377350803 -1.095491325230276 -1.114195901913239 -0.545379527783463 -0.7776294361944731 -0.3319372424799286 -1.025599555795654 4:75 8:0.92222656 29:0.64399237 33:23.022727 43:11.511364 
-0.8958013562545862 -1.255984089435066 -1.277424649070811 -0.6252732316955462 -0.8915472315341504 -0.3805631288212586 -1.175850388877153 4:75 8:0.8695279 36:2.5484277 43:8.4416667 80:30 
-0.1709897201287639 -0.239743074359544 -0.2522329699624311 -0.1193519038145308 -0.1701751968933246 -0.07264054681637871 -0.224453032442662 4:75 8:1.4492132 
-0.7806754134408228 -1.094578326319538 -1.113274222153968 -0.5449216052233297 -0.7769800881984431 -0.3316672592295994 -1.024745544797051 4:75 8:0.4140609 13:1.8794063 29:1.011988 33:30 
